digraph Tree {
node [shape=box, fontname="helvetica"] ;
edge [fontname="helvetica"] ;
0 [label="x[4] <= 1.03\ngini = 0.496\nsamples = 687554\nvalue = [375226, 312328]"] ;
1 [label="x[2] <= 1.004\ngini = 0.354\nsamples = 344081\nvalue = [264991, 79090]"] ;
0 -> 1 [labeldistance=2.5, labelangle=45, headlabel="True"] ;
2 [label="x[4] <= 0.919\ngini = 0.381\nsamples = 303535\nvalue = [225945, 77590]"] ;
1 -> 2 ;
3 [label="x[2] <= 0.78\ngini = 0.342\nsamples = 273572\nvalue = [213609, 59963]"] ;
2 -> 3 ;
4 [label="x[4] <= 0.737\ngini = 0.382\nsamples = 214224\nvalue = [159113, 55111]"] ;
3 -> 4 ;
5 [label="x[2] <= 0.602\ngini = 0.334\nsamples = 198247\nvalue = [156263, 41984]"] ;
4 -> 5 ;
6 [label="x[4] <= 0.465\ngini = 0.382\nsamples = 145899\nvalue = [108430, 37469]"] ;
5 -> 6 ;
7 [label="x[2] <= 0.405\ngini = 0.294\nsamples = 115309\nvalue = [94648, 20661]"] ;
6 -> 7 ;
8 [label="x[4] <= 0.276\ngini = 0.414\nsamples = 57682\nvalue = [40782, 16900]"] ;
7 -> 8 ;
9 [label="x[2] <= 0.069\ngini = 0.28\nsamples = 40305\nvalue = [33522, 6783]"] ;
8 -> 9 ;
10 [label="gini = 0.0\nsamples = 1500\nvalue = [0, 1500]"] ;
9 -> 10 ;
11 [label="x[3] <= 1.964\ngini = 0.235\nsamples = 38805\nvalue = [33522, 5283]"] ;
9 -> 11 ;
12 [label="x[3] <= -0.024\ngini = 0.21\nsamples = 38055\nvalue = [33522, 4533]"] ;
11 -> 12 ;
13 [label="x[3] <= -0.202\ngini = 0.408\nsamples = 1050\nvalue = [300, 750]"] ;
12 -> 13 ;
14 [label="gini = 0.0\nsamples = 300\nvalue = [300, 0]"] ;
13 -> 14 ;
15 [label="gini = 0.0\nsamples = 750\nvalue = [0, 750]"] ;
13 -> 15 ;
16 [label="x[2] <= 0.135\ngini = 0.184\nsamples = 37005\nvalue = [33222, 3783]"] ;
12 -> 16 ;
17 [label="x[4] <= 0.021\ngini = 0.446\nsamples = 4477\nvalue = [2977, 1500]"] ;
16 -> 17 ;
18 [label="gini = 0.0\nsamples = 2977\nvalue = [2977, 0]"] ;
17 -> 18 ;
19 [label="gini = 0.0\nsamples = 1500\nvalue = [0, 1500]"] ;
17 -> 19 ;
20 [label="x[3] <= 0.203\ngini = 0.131\nsamples = 32528\nvalue = [30245, 2283]"] ;
16 -> 20 ;
21 [label="x[4] <= 0.248\ngini = 0.362\nsamples = 4731\nvalue = [3606, 1125]"] ;
20 -> 21 ;
22 [label="x[2] <= 0.366\ngini = 0.171\nsamples = 3981\nvalue = [3606, 375]"] ;
21 -> 22 ;
23 [label="gini = 0.0\nsamples = 3606\nvalue = [3606, 0]"] ;
22 -> 23 ;
24 [label="gini = 0.0\nsamples = 375\nvalue = [0, 375]"] ;
22 -> 24 ;
25 [label="gini = 0.0\nsamples = 750\nvalue = [0, 750]"] ;
21 -> 25 ;
26 [label="x[0] <= 0.254\ngini = 0.08\nsamples = 27797\nvalue = [26639, 1158]"] ;
20 -> 26 ;
27 [label="gini = 0.0\nsamples = 14445\nvalue = [14445, 0]"] ;
26 -> 27 ;
28 [label="x[0] <= 0.265\ngini = 0.158\nsamples = 13352\nvalue = [12194, 1158]"] ;
26 -> 28 ;
29 [label="gini = 0.0\nsamples = 382\nvalue = [0, 382]"] ;
28 -> 29 ;
30 [label="x[2] <= 0.321\ngini = 0.113\nsamples = 12970\nvalue = [12194, 776]"] ;
28 -> 30 ;
31 [label="x[0] <= 0.342\ngini = 0.313\nsamples = 3999\nvalue = [3223, 776]"] ;
30 -> 31 ;
32 [label="x[2] <= 0.314\ngini = 0.191\nsamples = 3608\nvalue = [3223, 385]"] ;
31 -> 32 ;
33 [label="gini = 0.0\nsamples = 3223\nvalue = [3223, 0]"] ;
32 -> 33 ;
34 [label="gini = 0.0\nsamples = 385\nvalue = [0, 385]"] ;
32 -> 34 ;
35 [label="gini = 0.0\nsamples = 391\nvalue = [0, 391]"] ;
31 -> 35 ;
36 [label="gini = 0.0\nsamples = 8971\nvalue = [8971, 0]"] ;
30 -> 36 ;
37 [label="gini = 0.0\nsamples = 750\nvalue = [0, 750]"] ;
11 -> 37 ;
38 [label="x[5] <= 1.458\ngini = 0.486\nsamples = 17377\nvalue = [7260, 10117]"] ;
8 -> 38 ;
39 [label="x[0] <= 0.445\ngini = 0.441\nsamples = 15054\nvalue = [4937, 10117]"] ;
38 -> 39 ;
40 [label="x[5] <= 0.338\ngini = 0.328\nsamples = 12299\nvalue = [2542, 9757]"] ;
39 -> 40 ;
41 [label="gini = 0.0\nsamples = 5250\nvalue = [0, 5250]"] ;
40 -> 41 ;
42 [label="x[3] <= 0.629\ngini = 0.461\nsamples = 7049\nvalue = [2542, 4507]"] ;
40 -> 42 ;
43 [label="gini = 0.0\nsamples = 1800\nvalue = [1800, 0]"] ;
42 -> 43 ;
44 [label="x[4] <= 0.321\ngini = 0.243\nsamples = 5249\nvalue = [742, 4507]"] ;
42 -> 44 ;
45 [label="x[2] <= 0.282\ngini = 0.5\nsamples = 1492\nvalue = [742, 750]"] ;
44 -> 45 ;
46 [label="gini = 0.0\nsamples = 750\nvalue = [0, 750]"] ;
45 -> 46 ;
47 [label="gini = 0.0\nsamples = 742\nvalue = [742, 0]"] ;
45 -> 47 ;
48 [label="gini = 0.0\nsamples = 3757\nvalue = [0, 3757]"] ;
44 -> 48 ;
49 [label="x[4] <= 0.433\ngini = 0.227\nsamples = 2755\nvalue = [2395, 360]"] ;
39 -> 49 ;
50 [label="gini = 0.0\nsamples = 2248\nvalue = [2248, 0]"] ;
49 -> 50 ;
51 [label="x[1] <= 0.24\ngini = 0.412\nsamples = 507\nvalue = [147, 360]"] ;
49 -> 51 ;
52 [label="gini = 0.0\nsamples = 147\nvalue = [147, 0]"] ;
51 -> 52 ;
53 [label="gini = 0.0\nsamples = 360\nvalue = [0, 360]"] ;
51 -> 53 ;
54 [label="gini = 0.0\nsamples = 2323\nvalue = [2323, 0]"] ;
38 -> 54 ;
55 [label="x[2] <= 0.6\ngini = 0.122\nsamples = 57627\nvalue = [53866, 3761]"] ;
7 -> 55 ;
56 [label="x[1] <= 0.129\ngini = 0.1\nsamples = 56877\nvalue = [53866, 3011]"] ;
55 -> 56 ;
57 [label="x[3] <= 0.174\ngini = 0.282\nsamples = 13254\nvalue = [11004, 2250]"] ;
56 -> 57 ;
58 [label="x[4] <= 0.406\ngini = 0.124\nsamples = 11304\nvalue = [10554, 750]"] ;
57 -> 58 ;
59 [label="gini = 0.0\nsamples = 9804\nvalue = [9804, 0]"] ;
58 -> 59 ;
60 [label="x[1] <= -0.036\ngini = 0.5\nsamples = 1500\nvalue = [750, 750]"] ;
58 -> 60 ;
61 [label="gini = 0.0\nsamples = 750\nvalue = [0, 750]"] ;
60 -> 61 ;
62 [label="gini = 0.0\nsamples = 750\nvalue = [750, 0]"] ;
60 -> 62 ;
63 [label="x[2] <= 0.512\ngini = 0.355\nsamples = 1950\nvalue = [450, 1500]"] ;
57 -> 63 ;
64 [label="gini = 0.0\nsamples = 1500\nvalue = [0, 1500]"] ;
63 -> 64 ;
65 [label="gini = 0.0\nsamples = 450\nvalue = [450, 0]"] ;
63 -> 65 ;
66 [label="x[2] <= 0.442\ngini = 0.034\nsamples = 43623\nvalue = [42862, 761]"] ;
56 -> 66 ;
67 [label="x[2] <= 0.44\ngini = 0.168\nsamples = 8248\nvalue = [7487, 761]"] ;
66 -> 67 ;
68 [label="x[3] <= 0.233\ngini = 0.09\nsamples = 7856\nvalue = [7487, 369]"] ;
67 -> 68 ;
69 [label="x[4] <= 0.258\ngini = 0.325\nsamples = 1806\nvalue = [1437, 369]"] ;
68 -> 69 ;
70 [label="gini = 0.0\nsamples = 369\nvalue = [0, 369]"] ;
69 -> 70 ;
71 [label="gini = 0.0\nsamples = 1437\nvalue = [1437, 0]"] ;
69 -> 71 ;
72 [label="gini = 0.0\nsamples = 6050\nvalue = [6050, 0]"] ;
68 -> 72 ;
73 [label="gini = 0.0\nsamples = 392\nvalue = [0, 392]"] ;
67 -> 73 ;
74 [label="gini = 0.0\nsamples = 35375\nvalue = [35375, 0]"] ;
66 -> 74 ;
75 [label="gini = 0.0\nsamples = 750\nvalue = [0, 750]"] ;
55 -> 75 ;
76 [label="x[2] <= 0.484\ngini = 0.495\nsamples = 30590\nvalue = [13782, 16808]"] ;
6 -> 76 ;
77 [label="gini = 0.0\nsamples = 7500\nvalue = [0, 7500]"] ;
76 -> 77 ;
78 [label="x[4] <= 0.603\ngini = 0.481\nsamples = 23090\nvalue = [13782, 9308]"] ;
76 -> 78 ;
79 [label="x[1] <= 0.527\ngini = 0.368\nsamples = 16728\nvalue = [12659, 4069]"] ;
78 -> 79 ;
80 [label="x[3] <= 0.188\ngini = 0.498\nsamples = 5527\nvalue = [2581, 2946]"] ;
79 -> 80 ;
81 [label="gini = 0.0\nsamples = 1831\nvalue = [1831, 0]"] ;
80 -> 81 ;
82 [label="x[4] <= 0.595\ngini = 0.323\nsamples = 3696\nvalue = [750, 2946]"] ;
80 -> 82 ;
83 [label="gini = 0.0\nsamples = 2946\nvalue = [0, 2946]"] ;
82 -> 83 ;
84 [label="gini = 0.0\nsamples = 750\nvalue = [750, 0]"] ;
82 -> 84 ;
85 [label="x[2] <= 0.59\ngini = 0.18\nsamples = 11201\nvalue = [10078, 1123]"] ;
79 -> 85 ;
86 [label="x[2] <= 0.538\ngini = 0.13\nsamples = 10833\nvalue = [10078, 755]"] ;
85 -> 86 ;
87 [label="x[5] <= 0.528\ngini = 0.295\nsamples = 4205\nvalue = [3450, 755]"] ;
86 -> 87 ;
88 [label="gini = 0.0\nsamples = 392\nvalue = [0, 392]"] ;
87 -> 88 ;
89 [label="x[5] <= 1.406\ngini = 0.172\nsamples = 3813\nvalue = [3450, 363]"] ;
87 -> 89 ;
90 [label="gini = 0.0\nsamples = 3000\nvalue = [3000, 0]"] ;
89 -> 90 ;
91 [label="x[4] <= 0.546\ngini = 0.494\nsamples = 813\nvalue = [450, 363]"] ;
89 -> 91 ;
92 [label="gini = 0.0\nsamples = 363\nvalue = [0, 363]"] ;
91 -> 92 ;
93 [label="gini = 0.0\nsamples = 450\nvalue = [450, 0]"] ;
91 -> 93 ;
94 [label="gini = 0.0\nsamples = 6628\nvalue = [6628, 0]"] ;
86 -> 94 ;
95 [label="gini = 0.0\nsamples = 368\nvalue = [0, 368]"] ;
85 -> 95 ;
96 [label="x[2] <= 0.591\ngini = 0.291\nsamples = 6362\nvalue = [1123, 5239]"] ;
78 -> 96 ;
97 [label="gini = 0.0\nsamples = 5239\nvalue = [0, 5239]"] ;
96 -> 97 ;
98 [label="gini = 0.0\nsamples = 1123\nvalue = [1123, 0]"] ;
96 -> 98 ;
99 [label="x[3] <= 0.556\ngini = 0.158\nsamples = 52348\nvalue = [47833, 4515]"] ;
5 -> 99 ;
100 [label="x[5] <= 0.238\ngini = 0.45\nsamples = 5494\nvalue = [3612, 1882]"] ;
99 -> 100 ;
101 [label="x[3] <= 0.55\ngini = 0.169\nsamples = 3982\nvalue = [3612, 370]"] ;
100 -> 101 ;
102 [label="gini = 0.0\nsamples = 3612\nvalue = [3612, 0]"] ;
101 -> 102 ;
103 [label="gini = 0.0\nsamples = 370\nvalue = [0, 370]"] ;
101 -> 103 ;
104 [label="gini = 0.0\nsamples = 1512\nvalue = [0, 1512]"] ;
100 -> 104 ;
105 [label="x[0] <= 0.656\ngini = 0.106\nsamples = 46854\nvalue = [44221, 2633]"] ;
99 -> 105 ;
106 [label="gini = 0.0\nsamples = 23883\nvalue = [23883, 0]"] ;
105 -> 106 ;
107 [label="x[0] <= 0.666\ngini = 0.203\nsamples = 22971\nvalue = [20338, 2633]"] ;
105 -> 107 ;
108 [label="x[4] <= 0.489\ngini = 0.444\nsamples = 2250\nvalue = [750, 1500]"] ;
107 -> 108 ;
109 [label="gini = 0.0\nsamples = 750\nvalue = [750, 0]"] ;
108 -> 109 ;
110 [label="gini = 0.0\nsamples = 1500\nvalue = [0, 1500]"] ;
108 -> 110 ;
111 [label="x[1] <= 0.487\ngini = 0.103\nsamples = 20721\nvalue = [19588, 1133]"] ;
107 -> 111 ;
112 [label="gini = 0.0\nsamples = 750\nvalue = [0, 750]"] ;
111 -> 112 ;
113 [label="x[0] <= 0.878\ngini = 0.038\nsamples = 19971\nvalue = [19588, 383]"] ;
111 -> 113 ;
114 [label="gini = 0.0\nsamples = 17675\nvalue = [17675, 0]"] ;
113 -> 114 ;
115 [label="x[5] <= 0.4\ngini = 0.278\nsamples = 2296\nvalue = [1913, 383]"] ;
113 -> 115 ;
116 [label="gini = 0.0\nsamples = 1913\nvalue = [1913, 0]"] ;
115 -> 116 ;
117 [label="gini = 0.0\nsamples = 383\nvalue = [0, 383]"] ;
115 -> 117 ;
118 [label="x[1] <= 1.297\ngini = 0.293\nsamples = 15977\nvalue = [2850, 13127]"] ;
4 -> 118 ;
119 [label="x[5] <= 1.285\ngini = 0.427\nsamples = 9230\nvalue = [2850, 6380]"] ;
118 -> 119 ;
120 [label="x[0] <= 0.744\ngini = 0.188\nsamples = 7130\nvalue = [750, 6380]"] ;
119 -> 120 ;
121 [label="x[0] <= 0.721\ngini = 0.482\nsamples = 1853\nvalue = [750, 1103]"] ;
120 -> 121 ;
122 [label="gini = 0.0\nsamples = 1103\nvalue = [0, 1103]"] ;
121 -> 122 ;
123 [label="gini = 0.0\nsamples = 750\nvalue = [750, 0]"] ;
121 -> 123 ;
124 [label="gini = 0.0\nsamples = 5277\nvalue = [0, 5277]"] ;
120 -> 124 ;
125 [label="gini = 0.0\nsamples = 2100\nvalue = [2100, 0]"] ;
119 -> 125 ;
126 [label="gini = 0.0\nsamples = 6747\nvalue = [0, 6747]"] ;
118 -> 126 ;
127 [label="x[4] <= 0.807\ngini = 0.15\nsamples = 59348\nvalue = [54496, 4852]"] ;
3 -> 127 ;
128 [label="x[1] <= 0.392\ngini = 0.023\nsamples = 30792\nvalue = [30426, 366]"] ;
127 -> 128 ;
129 [label="x[2] <= 0.916\ngini = 0.336\nsamples = 1716\nvalue = [1350, 366]"] ;
128 -> 129 ;
130 [label="gini = 0.0\nsamples = 1350\nvalue = [1350, 0]"] ;
129 -> 130 ;
131 [label="gini = 0.0\nsamples = 366\nvalue = [0, 366]"] ;
129 -> 131 ;
132 [label="gini = 0.0\nsamples = 29076\nvalue = [29076, 0]"] ;
128 -> 132 ;
133 [label="x[4] <= 0.808\ngini = 0.265\nsamples = 28556\nvalue = [24070, 4486]"] ;
127 -> 133 ;
134 [label="gini = 0.0\nsamples = 750\nvalue = [0, 750]"] ;
133 -> 134 ;
135 [label="x[5] <= 1.929\ngini = 0.233\nsamples = 27806\nvalue = [24070, 3736]"] ;
133 -> 135 ;
136 [label="x[5] <= 1.548\ngini = 0.323\nsamples = 18443\nvalue = [14707, 3736]"] ;
135 -> 136 ;
137 [label="x[5] <= 0.53\ngini = 0.182\nsamples = 14693\nvalue = [13207, 1486]"] ;
136 -> 137 ;
138 [label="x[5] <= 0.486\ngini = 0.444\nsamples = 3371\nvalue = [2250, 1121]"] ;
137 -> 138 ;
139 [label="x[2] <= 0.826\ngini = 0.243\nsamples = 2621\nvalue = [2250, 371]"] ;
138 -> 139 ;
140 [label="gini = 0.0\nsamples = 371\nvalue = [0, 371]"] ;
139 -> 140 ;
141 [label="gini = 0.0\nsamples = 2250\nvalue = [2250, 0]"] ;
139 -> 141 ;
142 [label="gini = 0.0\nsamples = 750\nvalue = [0, 750]"] ;
138 -> 142 ;
143 [label="x[5] <= 1.477\ngini = 0.062\nsamples = 11322\nvalue = [10957, 365]"] ;
137 -> 143 ;
144 [label="gini = 0.0\nsamples = 10207\nvalue = [10207, 0]"] ;
143 -> 144 ;
145 [label="x[4] <= 0.899\ngini = 0.44\nsamples = 1115\nvalue = [750, 365]"] ;
143 -> 145 ;
146 [label="gini = 0.0\nsamples = 750\nvalue = [750, 0]"] ;
145 -> 146 ;
147 [label="gini = 0.0\nsamples = 365\nvalue = [0, 365]"] ;
145 -> 147 ;
148 [label="x[0] <= 0.864\ngini = 0.48\nsamples = 3750\nvalue = [1500, 2250]"] ;
136 -> 148 ;
149 [label="x[0] <= 0.848\ngini = 0.444\nsamples = 2250\nvalue = [1500, 750]"] ;
148 -> 149 ;
150 [label="gini = 0.0\nsamples = 750\nvalue = [0, 750]"] ;
149 -> 150 ;
151 [label="gini = 0.0\nsamples = 1500\nvalue = [1500, 0]"] ;
149 -> 151 ;
152 [label="gini = 0.0\nsamples = 1500\nvalue = [0, 1500]"] ;
148 -> 152 ;
153 [label="gini = 0.0\nsamples = 9363\nvalue = [9363, 0]"] ;
135 -> 153 ;
154 [label="x[4] <= 1.002\ngini = 0.484\nsamples = 29963\nvalue = [12336, 17627]"] ;
2 -> 154 ;
155 [label="x[5] <= 2.189\ngini = 0.463\nsamples = 27677\nvalue = [10050, 17627]"] ;
154 -> 155 ;
156 [label="x[3] <= 0.97\ngini = 0.372\nsamples = 19427\nvalue = [4800, 14627]"] ;
155 -> 156 ;
157 [label="x[3] <= 0.696\ngini = 0.461\nsamples = 5155\nvalue = [3300, 1855]"] ;
156 -> 157 ;
158 [label="x[0] <= 0.957\ngini = 0.24\nsamples = 2155\nvalue = [300, 1855]"] ;
157 -> 158 ;
159 [label="gini = 0.0\nsamples = 300\nvalue = [300, 0]"] ;
158 -> 159 ;
160 [label="gini = 0.0\nsamples = 1855\nvalue = [0, 1855]"] ;
158 -> 160 ;
161 [label="gini = 0.0\nsamples = 3000\nvalue = [3000, 0]"] ;
157 -> 161 ;
162 [label="x[4] <= 0.944\ngini = 0.188\nsamples = 14272\nvalue = [1500, 12772]"] ;
156 -> 162 ;
163 [label="x[1] <= 1.268\ngini = 0.408\nsamples = 5248\nvalue = [1500, 3748]"] ;
162 -> 163 ;
164 [label="x[4] <= 0.924\ngini = 0.444\nsamples = 2250\nvalue = [1500, 750]"] ;
163 -> 164 ;
165 [label="gini = 0.0\nsamples = 750\nvalue = [0, 750]"] ;
164 -> 165 ;
166 [label="gini = 0.0\nsamples = 1500\nvalue = [1500, 0]"] ;
164 -> 166 ;
167 [label="gini = 0.0\nsamples = 2998\nvalue = [0, 2998]"] ;
163 -> 167 ;
168 [label="gini = 0.0\nsamples = 9024\nvalue = [0, 9024]"] ;
162 -> 168 ;
169 [label="x[3] <= 2.364\ngini = 0.463\nsamples = 8250\nvalue = [5250, 3000]"] ;
155 -> 169 ;
170 [label="gini = 0.0\nsamples = 5250\nvalue = [5250, 0]"] ;
169 -> 170 ;
171 [label="gini = 0.0\nsamples = 3000\nvalue = [0, 3000]"] ;
169 -> 171 ;
172 [label="gini = 0.0\nsamples = 2286\nvalue = [2286, 0]"] ;
154 -> 172 ;
173 [label="x[3] <= 2.105\ngini = 0.071\nsamples = 40546\nvalue = [39046, 1500]"] ;
1 -> 173 ;
174 [label="x[4] <= 0.981\ngini = 0.039\nsamples = 37695\nvalue = [36945, 750]"] ;
173 -> 174 ;
175 [label="gini = 0.0\nsamples = 29295\nvalue = [29295, 0]"] ;
174 -> 175 ;
176 [label="x[4] <= 0.981\ngini = 0.163\nsamples = 8400\nvalue = [7650, 750]"] ;
174 -> 176 ;
177 [label="x[2] <= 1.14\ngini = 0.5\nsamples = 1500\nvalue = [750, 750]"] ;
176 -> 177 ;
178 [label="gini = 0.0\nsamples = 750\nvalue = [750, 0]"] ;
177 -> 178 ;
179 [label="gini = 0.0\nsamples = 750\nvalue = [0, 750]"] ;
177 -> 179 ;
180 [label="gini = 0.0\nsamples = 6900\nvalue = [6900, 0]"] ;
176 -> 180 ;
181 [label="x[3] <= 2.206\ngini = 0.388\nsamples = 2851\nvalue = [2101, 750]"] ;
173 -> 181 ;
182 [label="gini = 0.0\nsamples = 750\nvalue = [0, 750]"] ;
181 -> 182 ;
183 [label="gini = 0.0\nsamples = 2101\nvalue = [2101, 0]"] ;
181 -> 183 ;
184 [label="x[5] <= 1.1\ngini = 0.436\nsamples = 343473\nvalue = [110235, 233238]"] ;
0 -> 184 [labeldistance=2.5, labelangle=-45, headlabel="False"] ;
185 [label="x[4] <= 2.441\ngini = 0.305\nsamples = 199427\nvalue = [37445, 161982]"] ;
184 -> 185 ;
186 [label="x[4] <= 1.333\ngini = 0.285\nsamples = 195677\nvalue = [33695, 161982]"] ;
185 -> 186 ;
187 [label="x[0] <= 1.283\ngini = 0.382\nsamples = 86292\nvalue = [22145, 64147]"] ;
186 -> 187 ;
188 [label="x[2] <= 1.045\ngini = 0.264\nsamples = 74311\nvalue = [11645, 62666]"] ;
187 -> 188 ;
189 [label="x[4] <= 1.052\ngini = 0.043\nsamples = 34171\nvalue = [750, 33421]"] ;
188 -> 189 ;
190 [label="x[3] <= 0.081\ngini = 0.32\nsamples = 3750\nvalue = [750, 3000]"] ;
189 -> 190 ;
191 [label="gini = 0.0\nsamples = 750\nvalue = [750, 0]"] ;
190 -> 191 ;
192 [label="gini = 0.0\nsamples = 3000\nvalue = [0, 3000]"] ;
190 -> 192 ;
193 [label="gini = 0.0\nsamples = 30421\nvalue = [0, 30421]"] ;
189 -> 193 ;
194 [label="x[4] <= 1.326\ngini = 0.396\nsamples = 40140\nvalue = [10895, 29245]"] ;
188 -> 194 ;
195 [label="x[5] <= 0.241\ngini = 0.368\nsamples = 38640\nvalue = [9395, 29245]"] ;
194 -> 195 ;
196 [label="x[4] <= 1.136\ngini = 0.192\nsamples = 17613\nvalue = [1895, 15718]"] ;
195 -> 196 ;
197 [label="gini = 0.0\nsamples = 395\nvalue = [395, 0]"] ;
196 -> 197 ;
198 [label="x[1] <= 0.304\ngini = 0.159\nsamples = 17218\nvalue = [1500, 15718]"] ;
196 -> 198 ;
199 [label="x[1] <= 0.265\ngini = 0.347\nsamples = 6718\nvalue = [1500, 5218]"] ;
198 -> 199 ;
200 [label="gini = 0.0\nsamples = 5218\nvalue = [0, 5218]"] ;
199 -> 200 ;
201 [label="gini = 0.0\nsamples = 1500\nvalue = [1500, 0]"] ;
199 -> 201 ;
202 [label="gini = 0.0\nsamples = 10500\nvalue = [0, 10500]"] ;
198 -> 202 ;
203 [label="x[1] <= 0.677\ngini = 0.459\nsamples = 21027\nvalue = [7500, 13527]"] ;
195 -> 203 ;
204 [label="x[4] <= 1.101\ngini = 0.464\nsamples = 8271\nvalue = [5250, 3021]"] ;
203 -> 204 ;
205 [label="gini = 0.0\nsamples = 1138\nvalue = [0, 1138]"] ;
204 -> 205 ;
206 [label="x[0] <= 1.103\ngini = 0.389\nsamples = 7133\nvalue = [5250, 1883]"] ;
204 -> 206 ;
207 [label="gini = 0.0\nsamples = 1133\nvalue = [0, 1133]"] ;
206 -> 207 ;
208 [label="x[2] <= 1.209\ngini = 0.219\nsamples = 6000\nvalue = [5250, 750]"] ;
206 -> 208 ;
209 [label="gini = 0.0\nsamples = 5250\nvalue = [5250, 0]"] ;
208 -> 209 ;
210 [label="gini = 0.0\nsamples = 750\nvalue = [0, 750]"] ;
208 -> 210 ;
211 [label="x[0] <= 1.075\ngini = 0.291\nsamples = 12756\nvalue = [2250, 10506]"] ;
203 -> 211 ;
212 [label="x[4] <= 1.126\ngini = 0.317\nsamples = 1870\nvalue = [1500, 370]"] ;
211 -> 212 ;
213 [label="gini = 0.0\nsamples = 370\nvalue = [0, 370]"] ;
212 -> 213 ;
214 [label="gini = 0.0\nsamples = 1500\nvalue = [1500, 0]"] ;
212 -> 214 ;
215 [label="x[3] <= 1.254\ngini = 0.128\nsamples = 10886\nvalue = [750, 10136]"] ;
211 -> 215 ;
216 [label="gini = 0.0\nsamples = 8636\nvalue = [0, 8636]"] ;
215 -> 216 ;
217 [label="x[4] <= 1.182\ngini = 0.444\nsamples = 2250\nvalue = [750, 1500]"] ;
215 -> 217 ;
218 [label="gini = 0.0\nsamples = 1500\nvalue = [0, 1500]"] ;
217 -> 218 ;
219 [label="gini = 0.0\nsamples = 750\nvalue = [750, 0]"] ;
217 -> 219 ;
220 [label="gini = 0.0\nsamples = 1500\nvalue = [1500, 0]"] ;
194 -> 220 ;
221 [label="x[1] <= 1.099\ngini = 0.217\nsamples = 11981\nvalue = [10500, 1481]"] ;
187 -> 221 ;
222 [label="x[0] <= 1.293\ngini = 0.122\nsamples = 11231\nvalue = [10500, 731]"] ;
221 -> 222 ;
223 [label="x[3] <= 0.832\ngini = 0.439\nsamples = 1112\nvalue = [750, 362]"] ;
222 -> 223 ;
224 [label="gini = 0.0\nsamples = 362\nvalue = [0, 362]"] ;
223 -> 224 ;
225 [label="gini = 0.0\nsamples = 750\nvalue = [750, 0]"] ;
223 -> 225 ;
226 [label="x[3] <= 0.907\ngini = 0.07\nsamples = 10119\nvalue = [9750, 369]"] ;
222 -> 226 ;
227 [label="gini = 0.0\nsamples = 9000\nvalue = [9000, 0]"] ;
226 -> 227 ;
228 [label="x[1] <= 0.779\ngini = 0.442\nsamples = 1119\nvalue = [750, 369]"] ;
226 -> 228 ;
229 [label="gini = 0.0\nsamples = 369\nvalue = [0, 369]"] ;
228 -> 229 ;
230 [label="gini = 0.0\nsamples = 750\nvalue = [750, 0]"] ;
228 -> 230 ;
231 [label="gini = 0.0\nsamples = 750\nvalue = [0, 750]"] ;
221 -> 231 ;
232 [label="x[3] <= 1.257\ngini = 0.189\nsamples = 109385\nvalue = [11550, 97835]"] ;
186 -> 232 ;
233 [label="x[0] <= 1.393\ngini = 0.179\nsamples = 108635\nvalue = [10800, 97835]"] ;
232 -> 233 ;
234 [label="x[3] <= 1.039\ngini = 0.049\nsamples = 41913\nvalue = [1050, 40863]"] ;
233 -> 234 ;
235 [label="x[5] <= -0.101\ngini = 0.016\nsamples = 38172\nvalue = [300, 37872]"] ;
234 -> 235 ;
236 [label="x[5] <= -0.113\ngini = 0.052\nsamples = 11219\nvalue = [300, 10919]"] ;
235 -> 236 ;
237 [label="gini = 0.0\nsamples = 10919\nvalue = [0, 10919]"] ;
236 -> 237 ;
238 [label="gini = 0.0\nsamples = 300\nvalue = [300, 0]"] ;
236 -> 238 ;
239 [label="gini = 0.0\nsamples = 26953\nvalue = [0, 26953]"] ;
235 -> 239 ;
240 [label="x[3] <= 1.076\ngini = 0.321\nsamples = 3741\nvalue = [750, 2991]"] ;
234 -> 240 ;
241 [label="gini = 0.0\nsamples = 750\nvalue = [750, 0]"] ;
240 -> 241 ;
242 [label="gini = 0.0\nsamples = 2991\nvalue = [0, 2991]"] ;
240 -> 242 ;
243 [label="x[4] <= 1.517\ngini = 0.25\nsamples = 66722\nvalue = [9750, 56972]"] ;
233 -> 243 ;
244 [label="x[3] <= 0.093\ngini = 0.427\nsamples = 3687\nvalue = [2550, 1137]"] ;
243 -> 244 ;
245 [label="gini = 0.0\nsamples = 770\nvalue = [0, 770]"] ;
244 -> 245 ;
246 [label="x[1] <= 0.321\ngini = 0.22\nsamples = 2917\nvalue = [2550, 367]"] ;
244 -> 246 ;
247 [label="x[1] <= 0.241\ngini = 0.441\nsamples = 1117\nvalue = [750, 367]"] ;
246 -> 247 ;
248 [label="gini = 0.0\nsamples = 750\nvalue = [750, 0]"] ;
247 -> 248 ;
249 [label="gini = 0.0\nsamples = 367\nvalue = [0, 367]"] ;
247 -> 249 ;
250 [label="gini = 0.0\nsamples = 1800\nvalue = [1800, 0]"] ;
246 -> 250 ;
251 [label="x[4] <= 1.769\ngini = 0.202\nsamples = 63035\nvalue = [7200, 55835]"] ;
243 -> 251 ;
252 [label="x[0] <= 1.627\ngini = 0.325\nsamples = 35328\nvalue = [7200, 28128]"] ;
251 -> 252 ;
253 [label="x[3] <= 0.393\ngini = 0.216\nsamples = 30378\nvalue = [3750, 26628]"] ;
252 -> 253 ;
254 [label="gini = 0.0\nsamples = 12000\nvalue = [0, 12000]"] ;
253 -> 254 ;
255 [label="x[3] <= 0.435\ngini = 0.325\nsamples = 18378\nvalue = [3750, 14628]"] ;
253 -> 255 ;
256 [label="x[1] <= 0.222\ngini = 0.444\nsamples = 2250\nvalue = [1500, 750]"] ;
255 -> 256 ;
257 [label="gini = 0.0\nsamples = 750\nvalue = [0, 750]"] ;
256 -> 257 ;
258 [label="gini = 0.0\nsamples = 1500\nvalue = [1500, 0]"] ;
256 -> 258 ;
259 [label="x[4] <= 1.735\ngini = 0.24\nsamples = 16128\nvalue = [2250, 13878]"] ;
255 -> 259 ;
260 [label="x[5] <= 0.728\ngini = 0.176\nsamples = 15378\nvalue = [1500, 13878]"] ;
259 -> 260 ;
261 [label="x[3] <= 0.894\ngini = 0.346\nsamples = 6750\nvalue = [1500, 5250]"] ;
260 -> 261 ;
262 [label="gini = 0.0\nsamples = 5250\nvalue = [0, 5250]"] ;
261 -> 262 ;
263 [label="gini = 0.0\nsamples = 1500\nvalue = [1500, 0]"] ;
261 -> 263 ;
264 [label="gini = 0.0\nsamples = 8628\nvalue = [0, 8628]"] ;
260 -> 264 ;
265 [label="gini = 0.0\nsamples = 750\nvalue = [750, 0]"] ;
259 -> 265 ;
266 [label="x[3] <= 0.341\ngini = 0.422\nsamples = 4950\nvalue = [3450, 1500]"] ;
252 -> 266 ;
267 [label="gini = 0.0\nsamples = 2700\nvalue = [2700, 0]"] ;
266 -> 267 ;
268 [label="x[0] <= 1.637\ngini = 0.444\nsamples = 2250\nvalue = [750, 1500]"] ;
266 -> 268 ;
269 [label="gini = 0.0\nsamples = 750\nvalue = [750, 0]"] ;
268 -> 269 ;
270 [label="gini = 0.0\nsamples = 1500\nvalue = [0, 1500]"] ;
268 -> 270 ;
271 [label="gini = 0.0\nsamples = 27707\nvalue = [0, 27707]"] ;
251 -> 271 ;
272 [label="gini = 0.0\nsamples = 750\nvalue = [750, 0]"] ;
232 -> 272 ;
273 [label="gini = 0.0\nsamples = 3750\nvalue = [3750, 0]"] ;
185 -> 273 ;
274 [label="x[5] <= 3.023\ngini = 0.5\nsamples = 144046\nvalue = [72790, 71256]"] ;
184 -> 274 ;
275 [label="x[2] <= 1.087\ngini = 0.495\nsamples = 126428\nvalue = [56672, 69756]"] ;
274 -> 275 ;
276 [label="x[4] <= 1.076\ngini = 0.202\nsamples = 23731\nvalue = [2700, 21031]"] ;
275 -> 276 ;
277 [label="x[0] <= 1.002\ngini = 0.478\nsamples = 4950\nvalue = [1950, 3000]"] ;
276 -> 277 ;
278 [label="gini = 0.0\nsamples = 2250\nvalue = [0, 2250]"] ;
277 -> 278 ;
279 [label="x[4] <= 1.048\ngini = 0.401\nsamples = 2700\nvalue = [1950, 750]"] ;
277 -> 279 ;
280 [label="gini = 0.0\nsamples = 750\nvalue = [0, 750]"] ;
279 -> 280 ;
281 [label="gini = 0.0\nsamples = 1950\nvalue = [1950, 0]"] ;
279 -> 281 ;
282 [label="x[2] <= 1.014\ngini = 0.077\nsamples = 18781\nvalue = [750, 18031]"] ;
276 -> 282 ;
283 [label="x[0] <= 1.034\ngini = 0.32\nsamples = 3750\nvalue = [750, 3000]"] ;
282 -> 283 ;
284 [label="gini = 0.0\nsamples = 3000\nvalue = [0, 3000]"] ;
283 -> 284 ;
285 [label="gini = 0.0\nsamples = 750\nvalue = [750, 0]"] ;
283 -> 285 ;
286 [label="gini = 0.0\nsamples = 15031\nvalue = [0, 15031]"] ;
282 -> 286 ;
287 [label="x[4] <= 1.17\ngini = 0.499\nsamples = 102697\nvalue = [53972, 48725]"] ;
275 -> 287 ;
288 [label="x[4] <= 1.041\ngini = 0.221\nsamples = 20706\nvalue = [18086, 2620]"] ;
287 -> 288 ;
289 [label="gini = 0.0\nsamples = 750\nvalue = [0, 750]"] ;
288 -> 289 ;
290 [label="x[0] <= 1.12\ngini = 0.17\nsamples = 19956\nvalue = [18086, 1870]"] ;
288 -> 290 ;
291 [label="x[3] <= 1.548\ngini = 0.467\nsamples = 5029\nvalue = [3159, 1870]"] ;
290 -> 291 ;
292 [label="x[3] <= 1.005\ngini = 0.231\nsamples = 2779\nvalue = [2409, 370]"] ;
291 -> 292 ;
293 [label="gini = 0.0\nsamples = 370\nvalue = [0, 370]"] ;
292 -> 293 ;
294 [label="gini = 0.0\nsamples = 2409\nvalue = [2409, 0]"] ;
292 -> 294 ;
295 [label="x[2] <= 1.109\ngini = 0.444\nsamples = 2250\nvalue = [750, 1500]"] ;
291 -> 295 ;
296 [label="gini = 0.0\nsamples = 750\nvalue = [750, 0]"] ;
295 -> 296 ;
297 [label="gini = 0.0\nsamples = 1500\nvalue = [0, 1500]"] ;
295 -> 297 ;
298 [label="gini = 0.0\nsamples = 14927\nvalue = [14927, 0]"] ;
290 -> 298 ;
299 [label="x[2] <= 1.15\ngini = 0.492\nsamples = 81991\nvalue = [35886, 46105]"] ;
287 -> 299 ;
300 [label="gini = 0.0\nsamples = 6746\nvalue = [0, 6746]"] ;
299 -> 300 ;
301 [label="x[4] <= 1.398\ngini = 0.499\nsamples = 75245\nvalue = [35886, 39359]"] ;
299 -> 301 ;
302 [label="x[2] <= 1.332\ngini = 0.459\nsamples = 31512\nvalue = [20264, 11248]"] ;
301 -> 302 ;
303 [label="x[5] <= 1.532\ngini = 0.5\nsamples = 22062\nvalue = [10814, 11248]"] ;
302 -> 303 ;
304 [label="x[5] <= 1.195\ngini = 0.117\nsamples = 4800\nvalue = [300, 4500]"] ;
303 -> 304 ;
305 [label="gini = 0.0\nsamples = 300\nvalue = [300, 0]"] ;
304 -> 305 ;
306 [label="gini = 0.0\nsamples = 4500\nvalue = [0, 4500]"] ;
304 -> 306 ;
307 [label="x[2] <= 1.285\ngini = 0.476\nsamples = 17262\nvalue = [10514, 6748]"] ;
303 -> 307 ;
308 [label="x[4] <= 1.173\ngini = 0.391\nsamples = 11262\nvalue = [8264, 2998]"] ;
307 -> 308 ;
309 [label="gini = 0.0\nsamples = 750\nvalue = [0, 750]"] ;
308 -> 309 ;
310 [label="x[0] <= 1.235\ngini = 0.336\nsamples = 10512\nvalue = [8264, 2248]"] ;
308 -> 310 ;
311 [label="x[0] <= 1.203\ngini = 0.444\nsamples = 6762\nvalue = [4514, 2248]"] ;
310 -> 311 ;
312 [label="x[3] <= 2.474\ngini = 0.244\nsamples = 5262\nvalue = [4514, 748]"] ;
311 -> 312 ;
313 [label="x[3] <= 0.738\ngini = 0.136\nsamples = 4872\nvalue = [4514, 358]"] ;
312 -> 313 ;
314 [label="gini = 0.0\nsamples = 358\nvalue = [0, 358]"] ;
313 -> 314 ;
315 [label="gini = 0.0\nsamples = 4514\nvalue = [4514, 0]"] ;
313 -> 315 ;
316 [label="gini = 0.0\nsamples = 390\nvalue = [0, 390]"] ;
312 -> 316 ;
317 [label="gini = 0.0\nsamples = 1500\nvalue = [0, 1500]"] ;
311 -> 317 ;
318 [label="gini = 0.0\nsamples = 3750\nvalue = [3750, 0]"] ;
310 -> 318 ;
319 [label="x[4] <= 1.318\ngini = 0.469\nsamples = 6000\nvalue = [2250, 3750]"] ;
307 -> 319 ;
320 [label="x[0] <= 1.428\ngini = 0.375\nsamples = 3000\nvalue = [2250, 750]"] ;
319 -> 320 ;
321 [label="gini = 0.0\nsamples = 2250\nvalue = [2250, 0]"] ;
320 -> 321 ;
322 [label="gini = 0.0\nsamples = 750\nvalue = [0, 750]"] ;
320 -> 322 ;
323 [label="gini = 0.0\nsamples = 3000\nvalue = [0, 3000]"] ;
319 -> 323 ;
324 [label="gini = 0.0\nsamples = 9450\nvalue = [9450, 0]"] ;
302 -> 324 ;
325 [label="x[0] <= 1.447\ngini = 0.459\nsamples = 43733\nvalue = [15622, 28111]"] ;
301 -> 325 ;
326 [label="x[2] <= 1.371\ngini = 0.217\nsamples = 14549\nvalue = [1805, 12744]"] ;
325 -> 326 ;
327 [label="x[4] <= 1.43\ngini = 0.41\nsamples = 5777\nvalue = [1660, 4117]"] ;
326 -> 327 ;
328 [label="gini = 0.0\nsamples = 3750\nvalue = [0, 3750]"] ;
327 -> 328 ;
329 [label="x[2] <= 1.278\ngini = 0.297\nsamples = 2027\nvalue = [1660, 367]"] ;
327 -> 329 ;
330 [label="gini = 0.0\nsamples = 367\nvalue = [0, 367]"] ;
329 -> 330 ;
331 [label="gini = 0.0\nsamples = 1660\nvalue = [1660, 0]"] ;
329 -> 331 ;
332 [label="x[2] <= 1.488\ngini = 0.033\nsamples = 8772\nvalue = [145, 8627]"] ;
326 -> 332 ;
333 [label="gini = 0.0\nsamples = 7877\nvalue = [0, 7877]"] ;
332 -> 333 ;
334 [label="x[0] <= 1.424\ngini = 0.272\nsamples = 895\nvalue = [145, 750]"] ;
332 -> 334 ;
335 [label="gini = 0.0\nsamples = 145\nvalue = [145, 0]"] ;
334 -> 335 ;
336 [label="gini = 0.0\nsamples = 750\nvalue = [0, 750]"] ;
334 -> 336 ;
337 [label="x[4] <= 1.667\ngini = 0.499\nsamples = 29184\nvalue = [13817, 15367]"] ;
325 -> 337 ;
338 [label="x[5] <= 2.856\ngini = 0.439\nsamples = 16241\nvalue = [10967, 5274]"] ;
337 -> 338 ;
339 [label="x[3] <= 1.182\ngini = 0.38\nsamples = 14717\nvalue = [10967, 3750]"] ;
338 -> 339 ;
340 [label="x[3] <= 0.769\ngini = 0.444\nsamples = 4500\nvalue = [1500, 3000]"] ;
339 -> 340 ;
341 [label="gini = 0.0\nsamples = 1500\nvalue = [1500, 0]"] ;
340 -> 341 ;
342 [label="gini = 0.0\nsamples = 3000\nvalue = [0, 3000]"] ;
340 -> 342 ;
343 [label="x[4] <= 1.41\ngini = 0.136\nsamples = 10217\nvalue = [9467, 750]"] ;
339 -> 343 ;
344 [label="gini = 0.0\nsamples = 750\nvalue = [0, 750]"] ;
343 -> 344 ;
345 [label="gini = 0.0\nsamples = 9467\nvalue = [9467, 0]"] ;
343 -> 345 ;
346 [label="gini = 0.0\nsamples = 1524\nvalue = [0, 1524]"] ;
338 -> 346 ;
347 [label="x[0] <= 2.184\ngini = 0.343\nsamples = 12943\nvalue = [2850, 10093]"] ;
337 -> 347 ;
348 [label="x[5] <= 1.301\ngini = 0.225\nsamples = 11593\nvalue = [1500, 10093]"] ;
347 -> 348 ;
349 [label="x[0] <= 1.698\ngini = 0.443\nsamples = 2245\nvalue = [1500, 745]"] ;
348 -> 349 ;
350 [label="gini = 0.0\nsamples = 745\nvalue = [0, 745]"] ;
349 -> 350 ;
351 [label="gini = 0.0\nsamples = 1500\nvalue = [1500, 0]"] ;
349 -> 351 ;
352 [label="gini = 0.0\nsamples = 9348\nvalue = [0, 9348]"] ;
348 -> 352 ;
353 [label="gini = 0.0\nsamples = 1350\nvalue = [1350, 0]"] ;
347 -> 353 ;
354 [label="x[0] <= 1.129\ngini = 0.156\nsamples = 17618\nvalue = [16118, 1500]"] ;
274 -> 354 ;
355 [label="x[4] <= 1.174\ngini = 0.422\nsamples = 4950\nvalue = [3450, 1500]"] ;
354 -> 355 ;
356 [label="gini = 0.0\nsamples = 3450\nvalue = [3450, 0]"] ;
355 -> 356 ;
357 [label="gini = 0.0\nsamples = 1500\nvalue = [0, 1500]"] ;
355 -> 357 ;
358 [label="gini = 0.0\nsamples = 12668\nvalue = [12668, 0]"] ;
354 -> 358 ;
}